{
  "n_inputs": 24,
  "layers": [
    {
      "nodes": [
        {
          "weights": [
            -3.6116436534808436,
            -1.0652921322256765,
            0.6174061048881737,
            0.2761796329392381,
            -0.4865985764638844,
            0.3696680154486802,
            2.093887649077125,
            0.94174023720566,
            0.6248567688404107,
            -1.9608195373960666,
            0.9327812701908204,
            -0.7711159923760781,
            -0.40543860079909855,
            -0.06634248341813051,
            -1.4902353498675325,
            1.7768707737343445,
            3.850501522927316,
            -2.4809534675092877,
            1.417557653963561,
            0.6965025219893818,
            -0.3254452461111582,
            -0.5240053054570337,
            -0.5645001289160696,
            -0.4980216073048781
          ],
          "bias": 2.3581702202688395
        },
        {
          "weights": [
            3.4678819673674175,
            0.06348690678661287,
            -4.720037218835818,
            4.76053372563856,
            2.9640714366133896,
            -3.7098647612300226,
            0.7971257475806919,
            0.4629995471684982,
            -0.38897866923162805,
            0.17089569660899723,
            -0.8227374978300244,
            0.6713158445134844,
            -0.8618497217459297,
            -0.14782489783609545,
            2.8683032942211346,
            0.5238535628509815,
            -3.071950525114119,
            0.9870383362089022,
            2.401326900761795,
            -0.00014037217481646658,
            0.8149296356110739,
            0.5512771175450313,
            0.47249080646193903,
            0.4793869340724457
          ],
          "bias": -0.6659216930739578
        },
        {
          "weights": [
            4.8916221930467705,
            1.74807613158929,
            -0.21369388780578585,
            -2.912091953109127,
            -2.1035388172986846,
            1.7895321031569866,
            -0.04822157047189249,
            1.0532489842399584,
            -0.5375705925086247,
            0.30374050496962,
            -1.2566760169555309,
            0.5780219093616333,
            0.7451861793295451,
            -0.33703776197031204,
            0.4319570508472256,
            -0.20011532813481908,
            2.1467389677819266,
            -0.6031976756031405,
            0.10024953230712833,
            -0.8310953007614351,
            -0.02527883239030508,
            -0.1508448573152062,
            0.5306402693908105,
            0.1315383334038319
          ],
          "bias": 1.3178652810907479
        },
        {
          "weights": [
            -0.621325689242324,
            -0.6292242709927591,
            1.6906066062141578,
            -2.1753589947249665,
            1.8555604143944826,
            -1.5613833828836268,
            -5.359566536143825,
            -0.4922782827661072,
            -1.196070250122583,
            0.06863541223260226,
            1.7131871965912622,
            2.29400964293323,
            1.1120024738463528,
            0.07742841307662528,
            0.6230356894275624,
            -0.9708332692066989,
            -1.0635931918607575,
            0.05415971170436462,
            -3.5642185623095424,
            1.504909578348295,
            1.2905639931387505,
            0.7705702080772557,
            1.3010294180848088,
            0.8831899157703784
          ],
          "bias": 0.3369458255227218
        },
        {
          "weights": [
            -2.23230357090262,
            2.357877292704932,
            1.603254535021959,
            1.7812781676614018,
            1.146637391395776,
            -0.6826108432951223,
            -1.2875505563925262,
            2.11978937213071,
            -1.4918623054723068,
            0.7746005840056825,
            -0.5068958172895804,
            -2.1216514402883386,
            -2.8921188320759317,
            1.0190341263969238,
            0.3906535241535131,
            0.46877762490157715,
            -2.0564032041882676,
            1.71431575966147,
            -1.067710842404408,
            0.8146811635239488,
            -1.3057938005103247,
            2.4322974123078303,
            -0.0745938886668731,
            0.7110900528666553
          ],
          "bias": -1.2340736340016374
        },
        {
          "weights": [
            0.2834423626331066,
            -1.4311596370767654,
            -1.045836217668664,
            1.8487330822317356,
            0.7280911054982038,
            -1.5748537227853479,
            0.5118001060242182,
            -0.16842634799369555,
            2.4315346815363226,
            -1.1134161933013904,
            2.051588298496341,
            -2.471094377921329,
            -0.0745847240885059,
            -0.5307395677980249,
            0.6858942197740037,
            -1.0027306098451463,
            0.3839202601198878,
            3.941601333717261,
            1.0864347009599116,
            -0.40506945293064933,
            0.18758632537126643,
            -0.4408260276526478,
            1.0401026667601065,
            -0.03587233090405509
          ],
          "bias": -0.06232387576456966
        },
        {
          "weights": [
            -2.5923619798176154,
            -1.4878325120973401,
            0.08596888280259309,
            0.06225012635499483,
            -0.4202390741662678,
            1.152532058001443,
            1.8247124587385957,
            -0.7277261064284063,
            0.9005550942672225,
            -0.5362086217993799,
            -1.2836219751007714,
            0.07648388050833516,
            0.9260818920521194,
            0.03220607514285952,
            -0.22065757975124894,
            -1.0770879645008091,
            1.1212644822276334,
            1.4798202879830753,
            -0.016394386363095675,
            -0.3100767966828437,
            -0.007653622681584635,
            0.2534311867937965,
            -0.35092265222395413,
            0.3607214826912979
          ],
          "bias": -1.634915711845547
        },
        {
          "weights": [
            -1.1558530505930844,
            0.01003567275056487,
            1.6237231603221571,
            0.6723879887766926,
            0.13391845618140508,
            1.6392883768369744,
            -2.0480227423742576,
            1.6400193465821167,
            -1.4592533946065565,
            -0.19114994833657148,
            -1.9744773842959247,
            0.7022261077385132,
            -3.3007115277358126,
            -1.6569280309493222,
            -0.45589236266693445,
            0.2339211797304526,
            2.402196382352581,
            -0.9130649812005078,
            1.811894003148287,
            0.11464686578736959,
            -0.9020565175707932,
            1.0908158072721685,
            0.7623500931097904,
            0.05213640107384612
          ],
          "bias": 0.10079235711394306
        },
        {
          "weights": [
            -0.9178263722700195,
            0.4948380195827439,
            0.4695899538031386,
            2.0397489995199023,
            -2.990422223407979,
            -0.3729910381273297,
            0.06080357377765579,
            0.5775067447533826,
            -1.7875255737704476,
            0.6431977017916771,
            -0.4395862940364739,
            0.6793244946041886,
            1.980782673952096,
            1.4870323155899465,
            1.1586773762757319,
            -0.06391605267698042,
            -0.7928763027988717,
            -0.3514441587966124,
            1.4320530675292522,
            0.23715249013170797,
            1.9559822145689107,
            0.531508174269158,
            1.6997962980035615,
            -0.8998553866630093
          ],
          "bias": -2.0646635760473466
        },
        {
          "weights": [
            0.3530665263140754,
            0.7588863006828961,
            -1.0958266271682005,
            -0.33231959504949465,
            0.915871436788348,
            -1.0544165054339625,
            -0.08590255620996645,
            -0.6551693932412788,
            -0.5830647427594,
            -0.269816800168502,
            -0.3655169458384571,
            0.27384413820477693,
            2.0919786235810025,
            0.8332433635466698,
            1.5010066515736815,
            2.221632764016381,
            1.9885823563358949,
            -1.054653926014922,
            0.81767668705906,
            2.5135121829960125,
            4.321796452619553,
            -1.9656839996701274,
            0.5061907819565115,
            0.24449286068790285
          ],
          "bias": 2.51069943202601
        },
        {
          "weights": [
            -0.8776716204671908,
            2.3312772017087755,
            -0.2293603663063334,
            -1.1168137824643936,
            0.10965088635154994,
            0.08401009646084215,
            1.6242108922784788,
            -1.494155749083816,
            -0.10868208820220192,
            0.2765364848097208,
            1.5680834285023024,
            1.925109952982745,
            0.3321133899575968,
            0.9139236170232649,
            2.617790583517694,
            -0.7987424343735511,
            1.4581450295936849,
            -0.5961486482122375,
            1.478950587003415,
            1.9742041767800675,
            -0.5690541676995783,
            0.17365603610286334,
            1.792497528990993,
            -0.41963971726090893
          ],
          "bias": -2.34879962849598
        },
        {
          "weights": [
            -0.640005955317757,
            1.2298794904306554,
            -1.0092563975753144,
            -0.7053206800087092,
            0.3447783697662623,
            0.9769224301571418,
            -1.912736059496389,
            -2.7863385709594275,
            -2.0797948167236036,
            -1.5536425936631653,
            -0.5401237452772618,
            0.5807620847598348,
            -0.679265291035901,
            2.812875522040795,
            -0.043652150036700886,
            0.3921841433917311,
            0.68768933806323,
            -0.31994549015770385,
            0.11186958117203925,
            0.9041997222298366,
            1.751501256509296,
            -1.3039129863168768,
            0.7779464370821031,
            -2.935281905433299
          ],
          "bias": -1.658621910113169
        },
        {
          "weights": [
            -0.1643011157113545,
            -0.145677612407767,
            0.1960534891751133,
            -3.088311184796904,
            -1.2635607795488144,
            0.6796239141682445,
            -0.7131940477451043,
            2.9937061607105613,
            -2.027393720183527,
            1.1897451866749906,
            -1.2706763145842719,
            -3.394483701106095,
            1.1469939961612226,
            -0.9317204666805484,
            0.5576451370413563,
            -0.5780152920397895,
            -0.42006606530577073,
            1.1098231343420677,
            0.3196480046938498,
            -1.6311829155629431,
            -0.2125519347789122,
            -0.5119295098020308,
            -0.06386857151438256,
            -0.32098713599850137
          ],
          "bias": -1.000479365143162
        },
        {
          "weights": [
            -0.8278757504499568,
            -1.5179067468932248,
            1.0708485978581674,
            -1.2683371519467166,
            1.9865572213563494,
            0.48263308743245276,
            -0.051383792064771255,
            -0.46152091137343876,
            1.0477764574700397,
            1.0918441592819885,
            1.2821799277849089,
            -0.6040330223907093,
            1.3898576105038019,
            -1.2827892045143208,
            -1.2872354493459766,
            1.6363051230314847,
            3.2469159749052516,
            -1.3372675427714846,
            -3.5328893292591834,
            -0.07537489351560683,
            -1.2603665305781728,
            1.1271159680067393,
            1.662597226216559,
            0.9258714005566173
          ],
          "bias": -0.0029746248305005246
        },
        {
          "weights": [
            0.4868819913342567,
            1.2782733230240335,
            0.048831102266097715,
            2.2890545604217225,
            -1.4504131959283162,
            -2.3721859010078004,
            -1.6800704789417344,
            -3.544586102433582,
            -1.481739218912987,
            -1.201226888222118,
            -0.35225104222721937,
            0.20346826603527246,
            -2.413581690844875,
            -0.776389557839293,
            1.209018952429504,
            -1.3672998500791516,
            -0.9406732023292758,
            1.6329578124487074,
            0.78538684541389,
            -2.8216019497761637,
            0.21158462889982826,
            -0.6883092293852169,
            2.6315443639985068,
            -0.9159197850206583
          ],
          "bias": -1.0377408048418653
        },
        {
          "weights": [
            1.019779742630255,
            -0.10627208515911951,
            1.648904737785096,
            -0.7896234967601383,
            -1.5018094221708476,
            1.8476332177796195,
            -1.2504234341288312,
            0.21932966220303152,
            -0.5309587849176919,
            2.8410861632261084,
            -1.766850812651562,
            0.8920578533912646,
            -2.1991736147276937,
            0.1318657982966533,
            -0.9130338296544119,
            -0.9689251023162477,
            -1.215447055173037,
            -0.6968720700633468,
            0.21157239867237,
            0.7787348986411169,
            -0.7710766598395247,
            0.4005008369577806,
            -0.1069255738406597,
            0.1561722867037929
          ],
          "bias": 1.238628810895905
        }
      ]
    },
    {
      "nodes": [
        {
          "weights": [
            0.7305390955266315,
            -0.224190064815551,
            -1.4512001098490648,
            -1.6595366833463183,
            -0.13492977018431906,
            0.3155779158150948,
            0.7397889947365416,
            1.0015077113120594,
            1.2322477304152888,
            1.6673167851220378,
            0.22547399621867487,
            -1.6687812899123273,
            -1.1277242439632198,
            -0.8901666534350311,
            -0.09781918770386169,
            -1.967505398628995
          ],
          "bias": 2.6136502877446803
        },
        {
          "weights": [
            1.1785939294419794,
            -0.7238746871630453,
            -2.786855194904502,
            -1.3656918737065233,
            -2.688017124231976,
            -1.238874548776217,
            0.9052812819099301,
            -0.6369047455937714,
            2.276094140662482,
            -2.2371078636253134,
            0.7783832657009206,
            -0.45401160716911537,
            -2.3373504244018015,
            -0.5404949669558551,
            -2.3388438419133224,
            0.3172025056849033
          ],
          "bias": 0.26957378511046093
        },
        {
          "weights": [
            2.0692828879812715,
            -2.604178790826091,
            -0.2539217968585332,
            -1.1598590375559452,
            0.07840424070696732,
            3.4321214600856385,
            2.528254062916311,
            -0.7833243107285677,
            -0.100658749415727,
            -0.9204021488654012,
            0.2909754797877838,
            -0.22571077573354237,
            -2.698367320168633,
            0.167312956657991,
            -2.875256677028694,
            -0.5360912594770215
          ],
          "bias": -3.3832984421183534
        },
        {
          "weights": [
            0.1659326340709246,
            -0.4611816339097151,
            -0.1963983806450985,
            1.3986657426227003,
            0.16472417956544722,
            2.1266747101592927,
            0.350951563512328,
            -3.0262422461094944,
            0.23752518579700244,
            -0.031952556908403686,
            -1.0125406857182195,
            -3.1570222195879967,
            1.6991682301902673,
            -2.817597464984511,
            -1.4778482915386157,
            1.156812884349434
          ],
          "bias": -0.7138400490532683
        },
        {
          "weights": [
            -1.7847023252038008,
            1.5002311249417966,
            -0.24059032550528325,
            0.9472503366181866,
            -1.2829780212451427,
            1.3747081107055295,
            0.11856588222282279,
            0.6274106460570448,
            0.5548964996559302,
            0.885084522787931,
            1.3160704691301186,
            -1.8131474405938017,
            0.42665192800956236,
            0.8901764192449672,
            2.3027622518317967,
            -0.6788649462776809
          ],
          "bias": -1.4429934056435902
        },
        {
          "weights": [
            0.6514019426164811,
            -2.358043903697558,
            -1.2775588998781875,
            0.13997365600681927,
            -0.12952879033816778,
            -1.144954329688277,
            2.414386199217119,
            0.37736941823994496,
            -0.9575782128967637,
            0.9042353926752041,
            0.5392998506864898,
            -0.8089083152646747,
            -0.5618393579040268,
            -1.3029993131210595,
            -1.1981283867637522,
            0.7456284993279501
          ],
          "bias": 0.792062111990334
        },
        {
          "weights": [
            -1.5455246914915663,
            -0.8940730275173475,
            0.8145527969983704,
            0.00988255122291698,
            0.3857528937811711,
            -1.0907442573732269,
            1.043290766697723,
            -0.5690970492300244,
            1.6277249621297876,
            -0.8891283341109212,
            0.24680025505346598,
            -1.1302163192199466,
            0.7080540677517583,
            -0.5614945875574917,
            -2.1515566677210876,
            -1.2328549594333407
          ],
          "bias": -1.5078902565861303
        },
        {
          "weights": [
            -0.26997478829900384,
            -0.12505490046197762,
            -1.7421022557084218,
            -1.563298572979224,
            -1.7351296545093944,
            0.5664612441643705,
            -1.1787640303796618,
            0.5687309365840734,
            1.8611812410706767,
            2.5726359574563213,
            1.6510740604554826,
            -1.009052397824189,
            -1.0392627927652527,
            -0.1379139353333823,
            0.2791465235852847,
            2.398153485270469
          ],
          "bias": 1.1547774501156185
        }
      ]
    },
    {
      "nodes": [
        {
          "weights": [
            1.4354898431306315,
            1.7235579134305483,
            -0.0715173066094714,
            0.1708067899778892,
            1.2037964211290542,
            -0.14555024229103494,
            0.35354739768506516,
            -2.167561474705117
          ],
          "bias": 1.0687636411117682
        },
        {
          "weights": [
            -0.11545298119617936,
            -0.7310263568697262,
            -0.8049609819620319,
            -2.167383765023898,
            0.9880109017433015,
            -0.550799008462133,
            0.8801949088427969,
            1.5168404414845331
          ],
          "bias": -2.6179097687333828
        },
        {
          "weights": [
            0.2009262653081349,
            1.5531379325093968,
            0.4170531384821643,
            -0.10328563482398262,
            0.4237174946056555,
            -0.04346452636401166,
            -0.40104830515488865,
            0.7174017042735963
          ],
          "bias": 1.4824173152833355
        },
        {
          "weights": [
            -0.154455316139135,
            -0.04429579774172254,
            -0.4679692319226765,
            1.267345538710465,
            2.5861082793754187,
            -0.1397244362571452,
            0.5962610999211644,
            0.007975797368534245
          ],
          "bias": 0.33603180500113594
        }
      ]
    }
  ]
}